{
  "config": {
    "n_pool": 1000,
    "n_obj": 1500,
    "n_val": 1500,
    "inner_epochs": 2,
    "batch": 100,
    "inner_lr": 0.02,
    "meta_lr": 0.1,
    "meta_steps": 20
  },
  "history": [
    {
      "step": 0,
      "obj_ce": 2.306931972503662,
      "val_ce": 2.3051366011301675,
      "z": [
        0.0,
        0.0,
        0.0,
        0.0,
        0.0,
        0.0,
        0.0,
        0.0,
        0.0,
        0.0
      ],
      "class_weights": [
        1.0,
        1.0,
        1.0,
        1.0,
        1.0,
        1.0,
        1.0,
        1.0,
        1.0,
        1.0
      ]
    },
    {
      "step": 1,
      "obj_ce": 2.3217406272888184,
      "val_ce": 2.3182640075683594,
      "z": [
        -0.09999994188547134,
        0.09999998658895493,
        -0.09999992698431015,
        -0.09999997168779373,
        -0.09999994933605194,
        -0.09999997913837433,
        -0.09999998658895493,
        0.09999994188547134,
        0.09999998658895493,
        -0.09999995678663254
      ],
      "class_weights": [
        0.9377162456512451,
        1.1453289985656738,
        0.9377162456512451,
        0.9377162456512451,
        0.9377162456512451,
        0.9377162456512451,
        0.9377161264419556,
        1.1453289985656738,
        1.1453289985656738,
        0.9377162456512451
      ]
    },
    {
      "step": 2,
      "obj_ce": 2.3160476684570312,
      "val_ce": 2.3156375885009766,
      "z": [
        -0.11190281063318253,
        0.16662196815013885,
        -0.19705381989479065,
        -0.19838175177574158,
        -0.18988263607025146,
        -0.17167240381240845,
        -0.18863968551158905,
        0.18518690764904022,
        0.18657591938972473,
        -0.1303776204586029
      ],
      "class_weights": [
        0.9411548972129822,
        1.2434343099594116,
        0.8643317818641663,
        0.8631848096847534,
        0.8705523610115051,
        0.8865505456924438,
        0.8716350793838501,
        1.2667343616485596,
        1.2684950828552246,
        0.9239268898963928
      ]
    },
    {
      "step": 3,
      "obj_ce": 2.311224937438965,
      "val_ce": 2.3105669021606445,
      "z": [
        -0.07096482813358307,
        0.20200616121292114,
        -0.2952050268650055,
        -0.2031809240579605,
        -0.20851145684719086,
        -0.2508353590965271,
        -0.2437615990638733,
        0.2541946470737457,
        0.22820711135864258,
        -0.16719751060009003
      ],
      "class_weights": [
        0.9824569225311279,
        1.2908127307891846,
        0.7851040363311768,
        0.8607811331748962,
        0.8562051057815552,
        0.8207232356071472,
        0.8265494108200073,
        1.3599672317504883,
        1.3250802755355835,
        0.8923190832138062
      ]
    },
    {
      "step": 4,
      "obj_ce": 2.313418388366699,
      "val_ce": 2.313840309778849,
      "z": [
        -0.004888878669589758,
        0.22169548273086548,
        -0.3881661295890808,
        -0.2181563675403595,
        -0.22381842136383057,
        -0.32445594668388367,
        -0.2759547829627991,
        0.31345629692077637,
        0.25493094325065613,
        -0.16763082146644592
      ],
      "class_weights": [
        1.0462837219238281,
        1.3123624324798584,
        0.7131718993186951,
        0.8453344106674194,
        0.8405615091323853,
        0.7600868344306946,
        0.7978605628013611,
        1.438483715057373,
        1.3567123413085938,
        0.8891427516937256
      ]
    },
    {
      "step": 5,
      "obj_ce": 2.3129196166992188,
      "val_ce": 2.314227819442749,
      "z": [
        0.06876605749130249,
        0.22779293358325958,
        -0.43920278549194336,
        -0.24769054353237152,
        -0.20888996124267578,
        -0.40426984429359436,
        -0.30404233932495117,
        0.37575653195381165,
        0.2731558084487915,
        -0.13529382646083832
      ],
      "class_weights": [
        1.1143560409545898,
        1.3064370155334473,
        0.6705265045166016,
        0.8120608925819397,
        0.8441886305809021,
        0.6943637728691101,
        0.7675653100013733,
        1.5147755146026611,
        1.3670654296875,
        0.9086610078811646
      ]
    },
    {
      "step": 6,
      "obj_ce": 2.305957555770874,
      "val_ce": 2.3075129985809326,
      "z": [
        0.15090522170066833,
        0.2236306071281433,
        -0.4757823646068573,
        -0.2947646379470825,
        -0.2063828557729721,
        -0.4710429906845093,
        -0.3144744634628296,
        0.4154420495033264,
        0.2997947037220001,
        -0.09530453383922577
      ],
      "class_weights": [
        1.19621741771698,
        1.286454200744629,
        0.6392094492912292,
        0.7660517692565918,
        0.836838960647583,
        0.6422460675239563,
        0.7511008977890015,
        1.558464765548706,
        1.3882638216018677,
        0.9351528286933899
      ]
    },
    {
      "step": 7,
      "obj_ce": 2.3058416843414307,
      "val_ce": 2.3075455029805503,
      "z": [
        0.2357517033815384,
        0.20797768235206604,
        -0.5254064798355103,
        -0.33462512493133545,
        -0.20322033762931824,
        -0.5031094551086426,
        -0.3224613070487976,
        0.44749730825424194,
        0.32637932896614075,
        -0.059719473123550415
      ],
      "class_weights": [
        1.2862548828125,
        1.2510221004486084,
        0.6008419990539551,
        0.7271358370780945,
        0.8292471170425415,
        0.6143894195556641,
        0.7360345721244812,
        1.5895968675613403,
        1.4082705974578857,
        0.9572063684463501
      ]
    },
    {
      "step": 8,
      "obj_ce": 2.3061397075653076,
      "val_ce": 2.3085615634918213,
      "z": [
        0.32047173380851746,
        0.18725809454917908,
        -0.5660151243209839,
        -0.36885198950767517,
        -0.1960269659757614,
        -0.5173473954200745,
        -0.32342132925987244,
        0.461485356092453,
        0.3513287901878357,
        -0.053127191960811615
      ],
      "class_weights": [
        1.386034369468689,
        1.213165521621704,
        0.5711861848831177,
        0.6956720352172852,
        0.8269161581993103,
        0.5996720194816589,
        0.7280057668685913,
        1.5959358215332031,
        1.429470181465149,
        0.9539421796798706
      ]
    },
    {
      "step": 9,
      "obj_ce": 2.3090784549713135,
      "val_ce": 2.3126973311106362,
      "z": [
        0.39027631282806396,
        0.16817885637283325,
        -0.60113126039505,
        -0.40020468831062317,
        -0.19109392166137695,
        -0.5099336504936218,
        -0.32193008065223694,
        0.47602421045303345,
        0.3653576970100403,
        -0.06463134288787842
      ],
      "class_weights": [
        1.474682092666626,
        1.1809805631637573,
        0.5471867918968201,
        0.6689549088478088,
        0.8245415091514587,
        0.5994352102279663,
        0.723421037197113,
        1.606712818145752,
        1.4383893013000488,
        0.935695469379425
      ]
    },
    {
      "step": 10,
      "obj_ce": 2.311333417892456,
      "val_ce": 2.3161261876424155,
      "z": [
        0.4622454047203064,
        0.14774402976036072,
        -0.6236951351165771,
        -0.4328254759311676,
        -0.16955268383026123,
        -0.4899476170539856,
        -0.31888720393180847,
        0.46867311000823975,
        0.3785695433616638,
        -0.08823778480291367
      ],
      "class_weights": [
        1.5736680030822754,
        1.1490182876586914,
        0.5312454104423523,
        0.6429672241210938,
        0.8366170525550842,
        0.6072688102722168,
        0.7205623388290405,
        1.5838158130645752,
        1.447348713874817,
        0.907489001750946
      ]
    },
    {
      "step": 11,
      "obj_ce": 2.3102307319641113,
      "val_ce": 2.3156123956044516,
      "z": [
        0.5345988869667053,
        0.11036891490221024,
        -0.6213868856430054,
        -0.4625830352306366,
        -0.16031484305858612,
        -0.4611336588859558,
        -0.32201629877090454,
        0.48418572545051575,
        0.39312413334846497,
        -0.11155172437429428
      ],
      "class_weights": [
        1.673898458480835,
        1.0951871871948242,
        0.5268546342849731,
        0.6175306439399719,
        0.835472047328949,
        0.6184262633323669,
        0.7107319831848145,
        1.5916036367416382,
        1.4530730247497559,
        0.8772218823432922
      ]
    },
    {
      "step": 12,
      "obj_ce": 2.309868097305298,
      "val_ce": 2.3154372374216714,
      "z": [
        0.5227188467979431,
        0.09088508784770966,
        -0.600546658039093,
        -0.4636523425579071,
        -0.1622529923915863,
        -0.42493849992752075,
        -0.32642149925231934,
        0.5190833210945129,
        0.38103100657463074,
        -0.12996630370616913
      ],
      "class_weights": [
        1.652372121810913,
        1.0729138851165771,
        0.5373779535293579,
        0.6162151098251343,
        0.8329682946205139,
        0.6405389308929443,
        0.7068559527397156,
        1.6463758945465088,
        1.4340808391571045,
        0.8603007197380066
      ]
    },
    {
      "step": 13,
      "obj_ce": 2.3092904090881348,
      "val_ce": 2.3149513403574624,
      "z": [
        0.5042220950126648,
        0.07922607660293579,
        -0.5835221409797668,
        -0.45960429310798645,
        -0.15447577834129333,
        -0.3945119380950928,
        -0.32333844900131226,
        0.5366005897521973,
        0.370961993932724,
        -0.14589980244636536
      ],
      "class_weights": [
        1.6223154067993164,
        1.0606249570846558,
        0.5466809272766113,
        0.6188006401062012,
        0.8395882844924927,
        0.660419762134552,
        0.7091372013092041,
        1.6757029294967651,
        1.4199111461639404,
        0.8468195796012878
      ]
    },
    {
      "step": 14,
      "obj_ce": 2.3080849647521973,
      "val_ce": 2.3138650258382163,
      "z": [
        0.48593905568122864,
        0.07408866286277771,
        -0.5661606788635254,
        -0.45275217294692993,
        -0.15121380984783173,
        -0.36790838837623596,
        -0.32259148359298706,
        0.5402283072471619,
        0.3607915937900543,
        -0.13854052126407623
      ],
      "class_weights": [
        1.5932331085205078,
        1.0553948879241943,
        0.5563629865646362,
        0.6231762766838074,
        0.8424950242042542,
        0.6783567667007446,
        0.709804892539978,
        1.682119607925415,
        1.4058159589767456,
        0.8532401323318481
      ]
    },
    {
      "step": 15,
      "obj_ce": 2.3059213161468506,
      "val_ce": 2.311411698659261,
      "z": [
        0.46091189980506897,
        0.0676986426115036,
        -0.5562335848808289,
        -0.4395756125450134,
        -0.1434493511915207,
        -0.3384404182434082,
        -0.3214499354362488,
        0.5303332209587097,
        0.36552536487579346,
        -0.11649515479803085
      ],
      "class_weights": [
        1.5531539916992188,
        1.048200011253357,
        0.5616604685783386,
        0.6311575174331665,
        0.8486796021461487,
        0.6983292102813721,
        0.7102954983711243,
        1.6648067235946655,
        1.4118504524230957,
        0.8718661069869995
      ]
    },
    {
      "step": 16,
      "obj_ce": 2.3026273250579834,
      "val_ce": 2.3076512813568115,
      "z": [
        0.42591238021850586,
        0.058530885726213455,
        -0.5497819781303406,
        -0.4076310992240906,
        -0.14340843260288239,
        -0.33416077494621277,
        -0.3253914415836334,
        0.5287786722183228,
        0.38346588611602783,
        -0.08557934314012527
      ],
      "class_weights": [
        1.497978925704956,
        1.0374183654785156,
        0.5646339654922485,
        0.6508821249008179,
        0.847720742225647,
        0.7005031108856201,
        0.7066731452941895,
        1.6602745056152344,
        1.4357255697250366,
        0.8981888294219971
      ]
    },
    {
      "step": 17,
      "obj_ce": 2.300839424133301,
      "val_ce": 2.3049699465433755,
      "z": [
        0.38718390464782715,
        0.05225979536771774,
        -0.5373122692108154,
        -0.3748689889907837,
        -0.15855121612548828,
        -0.3249325752258301,
        -0.32920095324516296,
        0.5315203666687012,
        0.39621272683143616,
        -0.05552273243665695
      ],
      "class_weights": [
        1.4400912523269653,
        1.0302302837371826,
        0.5713291168212891,
        0.6721011400222778,
        0.8344114422798157,
        0.7065155506134033,
        0.703506350517273,
        1.6636980772018433,
        1.4531524181365967,
        0.9249642491340637
      ]
    },
    {
      "step": 18,
      "obj_ce": 2.3011627197265625,
      "val_ce": 2.3058393001556396,
      "z": [
        0.3427031636238098,
        0.05213399603962898,
        -0.5211653113365173,
        -0.3432544469833374,
        -0.16832494735717773,
        -0.3134281635284424,
        -0.329198956489563,
        0.5350022315979004,
        0.4016982614994049,
        -0.03385297209024429
      ],
      "class_weights": [
        1.3771321773529053,
        1.0298715829849243,
        0.5805001258850098,
        0.6935344934463501,
        0.8261120915412903,
        0.7145316004753113,
        0.7033513784408569,
        1.669129729270935,
        1.4608206748962402,
        0.9450165033340454
      ]
    },
    {
      "step": 19,
      "obj_ce": 2.30214786529541,
      "val_ce": 2.3064497311909995,
      "z": [
        0.30995965003967285,
        0.05400024726986885,
        -0.5079896450042725,
        -0.31177517771720886,
        -0.17842186987400055,
        -0.2979373633861542,
        -0.3347660303115845,
        0.5323375463485718,
        0.4017743468284607,
        -0.02086259424686432
      ],
      "class_weights": [
        1.33351469039917,
        1.0323717594146729,
        0.5885278582572937,
        0.7161135077476501,
        0.8182696104049683,
        0.7260918617248535,
        0.6998372077941895,
        1.665617823600769,
        1.4617478847503662,
        0.957907497882843
      ]
    },
    {
      "step": 20,
      "obj_ce": 2.3019144535064697,
      "val_ce": 2.3063135147094727,
      "z": [
        0.27975812554359436,
        0.05614563450217247,
        -0.49884355068206787,
        -0.27842503786087036,
        -0.18185636401176453,
        -0.2843605875968933,
        -0.33939680457115173,
        0.5284910798072815,
        0.3998195230960846,
        -0.016314109787344933
      ],
      "class_weights": [
        1.2949769496917725,
        1.0354957580566406,
        0.5944558382034302,
        0.741047739982605,
        0.8161789178848267,
        0.7366622090339661,
        0.6972146034240723,
        1.6606777906417847,
        1.4601719379425049,
        0.9631180167198181
      ]
    }
  ]
}