{
  "config": {
    "method": "replay",
    "n_pool": 4000,
    "n_obj": 2000,
    "n_val": 2000,
    "inner_epochs": 12,
    "batch": 250,
    "total_steps": 192,
    "inner_lr": 0.02,
    "meta_lr": 0.1,
    "meta_steps": 20,
    "corrupt_classes": [
      3,
      5
    ],
    "corrupt_frac": 1.0
  },
  "history": [
    {
      "step": 0,
      "obj_ce": 2.1534855365753174,
      "val_ce": 2.137550711631775,
      "z": [
        0.0,
        0.0,
        0.0,
        0.0,
        0.0,
        0.0,
        0.0,
        0.0,
        0.0,
        0.0
      ],
      "class_weights": [
        1.0,
        1.0,
        1.0,
        1.0,
        1.0,
        1.0,
        1.0,
        1.0,
        1.0,
        1.0
      ]
    },
    {
      "step": 1,
      "obj_ce": 2.1553170680999756,
      "val_ce": 2.1528689861297607,
      "z": [
        0.10000000149011612,
        0.10000000149011612,
        0.10000000149011612,
        -0.09999998658895493,
        -0.10000000149011612,
        0.09999998658895493,
        0.09999998658895493,
        0.10000000894069672,
        -0.09999999403953552,
        -0.09999998658895493
      ],
      "class_weights": [
        1.0781760215759277,
        1.0781760215759277,
        1.0781760215759277,
        0.8827359080314636,
        0.8827359080314636,
        1.0781760215759277,
        1.0781760215759277,
        1.0781760215759277,
        0.8827359080314636,
        0.8827359080314636
      ]
    },
    {
      "step": 2,
      "obj_ce": 2.179037094116211,
      "val_ce": 2.17777419090271,
      "z": [
        0.18600045144557953,
        0.032914988696575165,
        0.047835573554039,
        -0.1959792673587799,
        -0.1280110776424408,
        0.19741246104240417,
        0.19512519240379333,
        0.19703355431556702,
        -0.08935904502868652,
        -0.05539681017398834
      ],
      "class_weights": [
        1.1469734907150269,
        0.9841679930686951,
        0.9989624619483948,
        0.7828196287155151,
        0.8378762602806091,
        1.1601377725601196,
        1.1574872732162476,
        1.159698247909546,
        0.8708959817886353,
        0.9009814858436584
      ]
    },
    {
      "step": 3,
      "obj_ce": 2.227334499359131,
      "val_ce": 2.231459379196167,
      "z": [
        0.18172991275787354,
        -0.02776811458170414,
        0.02803967334330082,
        -0.26813194155693054,
        -0.12554730474948883,
        0.2816424071788788,
        0.29028329253196716,
        0.2610066533088684,
        -0.12870031595230103,
        0.01641722396016121
      ],
      "class_weights": [
        1.1204864978790283,
        0.9087047576904297,
        0.9608593583106995,
        0.7145524024963379,
        0.8240580558776855,
        1.2382206916809082,
        1.2489663362503052,
        1.2129309177398682,
        0.821463942527771,
        0.9497564435005188
      ]
    },
    {
      "step": 4,
      "obj_ce": 2.2398488521575928,
      "val_ce": 2.236382007598877,
      "z": [
        0.1494627445936203,
        -0.08074213564395905,
        -0.026992959901690483,
        -0.351012259721756,
        -0.12917792797088623,
        0.2764144837856293,
        0.2978880703449249,
        0.3392544686794281,
        -0.09964898228645325,
        0.09031891822814941
      ],
      "class_weights": [
        1.084352731704712,
        0.8613781929016113,
        0.9089434146881104,
        0.6573808789253235,
        0.8206509947776794,
        1.2311331033706665,
        1.2578558921813965,
        1.3109800815582275,
        0.8452452421188354,
        1.0220797061920166
      ]
    },
    {
      "step": 5,
      "obj_ce": 2.251612901687622,
      "val_ce": 2.247906804084778,
      "z": [
        0.1377687156200409,
        -0.14197887480258942,
        -0.05362241715192795,
        -0.4394634962081909,
        -0.13941945135593414,
        0.3070254921913147,
        0.33665528893470764,
        0.35376307368278503,
        -0.07822951674461365,
        0.1685955673456192
      ],
      "class_weights": [
        1.065671682357788,
        0.8056206703186035,
        0.8800418376922607,
        0.5983215570449829,
        0.8076852560043335,
        1.262207269668579,
        1.3001658916473389,
        1.322600245475769,
        0.8586508631706238,
        1.0990346670150757
      ]
    },
    {
      "step": 6,
      "obj_ce": 2.2543399333953857,
      "val_ce": 2.253900170326233,
      "z": [
        0.11399106681346893,
        -0.19994081556797028,
        -0.07499539852142334,
        -0.5059888362884521,
        -0.15289056301116943,
        0.3511796295642853,
        0.3698631525039673,
        0.37676098942756653,
        -0.06629172712564468,
        0.2362707108259201
      ],
      "class_weights": [
        1.0323129892349243,
        0.7541756629943848,
        0.8545461893081665,
        0.5553382039070129,
        0.7905077934265137,
        1.3086426258087158,
        1.333322525024414,
        1.3425512313842773,
        0.8620164394378662,
        1.166585922241211
      ]
    },
    {
      "step": 7,
      "obj_ce": 2.2721757888793945,
      "val_ce": 2.2691465616226196,
      "z": [
        0.10722198337316513,
        -0.2519819438457489,
        -0.07427310198545456,
        -0.5527476072311401,
        -0.14924603700637817,
        0.39084309339523315,
        0.3594796359539032,
        0.3935956358909607,
        -0.031092647463083267,
        0.2772848904132843
      ],
      "class_weights": [
        1.0177545547485352,
        0.7106286883354187,
        0.848829984664917,
        0.5260437726974487,
        0.787517786026001,
        1.3515064716339111,
        1.3097763061523438,
        1.355231523513794,
        0.8862857818603516,
        1.2064251899719238
      ]
    },
    {
      "step": 8,
      "obj_ce": 2.235994815826416,
      "val_ce": 2.240715742111206,
      "z": [
        0.09083498269319534,
        -0.2979261577129364,
        -0.06740723550319672,
        -0.5896477103233337,
        -0.14474156498908997,
        0.4220518469810486,
        0.3338593542575836,
        0.40958377718925476,
        0.010759017430245876,
        0.31783461570739746
      ],
      "class_weights": [
        0.9951170682907104,
        0.6745859980583191,
        0.8494746088981628,
        0.5038999319076538,
        0.7862570285797119,
        1.3858613967895508,
        1.2688733339309692,
        1.3686896562576294,
        0.9185389280319214,
        1.248702049255371
      ]
    },
    {
      "step": 9,
      "obj_ce": 2.2771124839782715,
      "val_ce": 2.273663282394409,
      "z": [
        0.06315901130437851,
        -0.3428722023963928,
        -0.04249980300664902,
        -0.6171290874481201,
        -0.13002316653728485,
        0.4628503620624542,
        0.32315436005592346,
        0.43253639340400696,
        0.04250659793615341,
        0.33279937505722046
      ],
      "class_weights": [
        0.9596009254455566,
        0.6393718719482422,
        0.8633831739425659,
        0.4860100746154785,
        0.7910295724868774,
        1.4311145544052124,
        1.2445294857025146,
        1.3883827924728394,
        0.9399861097335815,
        1.2565910816192627
      ]
    },
    {
      "step": 10,
      "obj_ce": 2.2658917903900146,
      "val_ce": 2.259967803955078,
      "z": [
        0.008794204331934452,
        -0.4042053520679474,
        -0.08016148209571838,
        -0.615800678730011,
        -0.08115500211715698,
        0.5183056592941284,
        0.2737814486026764,
        0.3936830461025238,
        0.008056143298745155,
        0.29136207699775696
      ],
      "class_weights": [
        0.9268577098846436,
        0.613267183303833,
        0.8479692935943604,
        0.4963122308254242,
        0.8471273183822632,
        1.542734146118164,
        1.2080796957015991,
        1.3619720935821533,
        0.926173985004425,
        1.229506254196167
      ]
    },
    {
      "step": 11,
      "obj_ce": 2.262056589126587,
      "val_ce": 2.2604821920394897,
      "z": [
        -0.04236437380313873,
        -0.4567657709121704,
        -0.11959700286388397,
        -0.6086349487304688,
        -0.03755093365907669,
        0.5612833499908447,
        0.23404738306999207,
        0.3616037666797638,
        -0.03583774343132973,
        0.2577860355377197
      ],
      "class_weights": [
        0.8960246443748474,
        0.5920354723930359,
        0.8294271230697632,
        0.5086180567741394,
        0.9003479480743408,
        1.638629674911499,
        1.1813105344772339,
        1.3420264720916748,
        0.9018916487693787,
        1.209688663482666
      ]
    },
    {
      "step": 12,
      "obj_ce": 2.241805076599121,
      "val_ce": 2.2357927560806274,
      "z": [
        -0.08658593893051147,
        -0.5068495869636536,
        -0.1502719670534134,
        -0.6059840321540833,
        0.0045526460744440556,
        0.6020562648773193,
        0.20531879365444183,
        0.319048136472702,
        -0.0758180096745491,
        0.22579151391983032
      ],
      "class_weights": [
        0.8700791597366333,
        0.5715320110321045,
        0.8163949251174927,
        0.5175913572311401,
        0.9531027674674988,
        1.732336401939392,
        1.165014624595642,
        1.3053393363952637,
        0.8794986009597778,
        1.189111351966858
      ]
    },
    {
      "step": 13,
      "obj_ce": 2.253699779510498,
      "val_ce": 2.2575771808624268,
      "z": [
        -0.13009686768054962,
        -0.5518158078193665,
        -0.17911791801452637,
        -0.6083627343177795,
        0.0416715070605278,
        0.6397097706794739,
        0.18108652532100677,
        0.2835017740726471,
        -0.10803395509719849,
        0.19600211083889008
      ],
      "class_weights": [
        0.8431819081306458,
        0.5530584454536438,
        0.8028448820114136,
        0.5226524472236633,
        1.0011963844299316,
        1.820723533630371,
        1.150976538658142,
        1.2751017808914185,
        0.8619915843009949,
        1.1682727336883545
      ]
    },
    {
      "step": 14,
      "obj_ce": 2.256235122680664,
      "val_ce": 2.2550199031829834,
      "z": [
        -0.17330923676490784,
        -0.5912641286849976,
        -0.20633924007415771,
        -0.6087766885757446,
        0.07561258971691132,
        0.6689562797546387,
        0.15818652510643005,
        0.25006163120269775,
        -0.13051430881023407,
        0.16983848810195923
      ],
      "class_weights": [
        0.8163014054298401,
        0.5374462008476257,
        0.7897793650627136,
        0.5281161069869995,
        1.0470221042633057,
        1.8951420783996582,
        1.1371488571166992,
        1.2465741634368896,
        0.8519930839538574,
        1.1504762172698975
      ]
    },
    {
      "step": 15,
      "obj_ce": 2.237527847290039,
      "val_ce": 2.2446459531784058,
      "z": [
        -0.21790601313114166,
        -0.6288368701934814,
        -0.22318734228610992,
        -0.6056907176971436,
        0.10598766058683395,
        0.6944549679756165,
        0.13950622081756592,
        0.22035397589206696,
        -0.15015895664691925,
        0.14448580145835876
      ],
      "class_weights": [
        0.7876801490783691,
        0.5222578048706055,
        0.783531129360199,
        0.5344870090484619,
        1.08896803855896,
        1.9614770412445068,
        1.1260871887207031,
        1.2209104299545288,
        0.8428922891616821,
        1.1317087411880493
      ]
    },
    {
      "step": 16,
      "obj_ce": 2.213343620300293,
      "val_ce": 2.2197424173355103,
      "z": [
        -0.2578243315219879,
        -0.6656051874160767,
        -0.22912603616714478,
        -0.6001046895980835,
        0.13398116827011108,
        0.7203473448753357,
        0.13231323659420013,
        0.18155980110168457,
        -0.15849986672401428,
        0.11830863356590271
      ],
      "class_weights": [
        0.761404275894165,
        0.5064287781715393,
        0.7835718989372253,
        0.5407105684280396,
        1.1266118288040161,
        2.0250227451324463,
        1.1247341632843018,
        1.1815099716186523,
        0.8409136533737183,
        1.1090924739837646
      ]
    },
    {
      "step": 17,
      "obj_ce": 2.1927881240844727,
      "val_ce": 2.2042574882507324,
      "z": [
        -0.2938937842845917,
        -0.6996074914932251,
        -0.23578783869743347,
        -0.5889689922332764,
        0.15895214676856995,
        0.7346721291542053,
        0.13002461194992065,
        0.14327111840248108,
        -0.15721431374549866,
        0.09497416764497757
      ],
      "class_weights": [
        0.7386257648468018,
        0.4922947585582733,
        0.7828158140182495,
        0.5498888492584229,
        1.1616971492767334,
        2.065974235534668,
        1.1285734176635742,
        1.143622636795044,
        0.8468052744865417,
        1.089701771736145
      ]
    },
    {
      "step": 18,
      "obj_ce": 2.2193262577056885,
      "val_ce": 2.228419542312622,
      "z": [
        -0.32763439416885376,
        -0.7312868237495422,
        -0.24146407842636108,
        -0.57980877161026,
        0.1819451004266739,
        0.7470574378967285,
        0.1265249103307724,
        0.10858793556690216,
        -0.1539880633354187,
        0.07371649891138077
      ],
      "class_weights": [
        0.7176774144172668,
        0.4793197214603424,
        0.7822626829147339,
        0.5577137470245361,
        1.1946394443511963,
        2.102141857147217,
        1.1302335262298584,
        1.1101412773132324,
        0.8537740111351013,
        1.0720962285995483
      ]
    },
    {
      "step": 19,
      "obj_ce": 2.2333884239196777,
      "val_ce": 2.237889289855957,
      "z": [
        -0.35969406366348267,
        -0.7577475309371948,
        -0.2485862821340561,
        -0.5659998059272766,
        0.20358337461948395,
        0.7546462416648865,
        0.12290063500404358,
        0.07510346174240112,
        -0.15162014961242676,
        0.055327046662569046
      ],
      "class_weights": [
        0.6984540820121765,
        0.4691000282764435,
        0.7805332541465759,
        0.5682512521743774,
        1.226778507232666,
        2.1285786628723145,
        1.1316864490509033,
        1.0788674354553223,
        0.860009491443634,
        1.0577408075332642
      ]
    },
    {
      "step": 20,
      "obj_ce": 2.227240800857544,
      "val_ce": 2.224710464477539,
      "z": [
        -0.3881922960281372,
        -0.7826625108718872,
        -0.254724383354187,
        -0.5525082945823669,
        0.22317931056022644,
        0.7620431184768677,
        0.11879293620586395,
        0.044884275645017624,
        -0.1481226533651352,
        0.03864656761288643
      ],
      "class_weights": [
        0.6815143823623657,
        0.4593659043312073,
        0.7788240909576416,
        0.5782471299171448,
        1.2560020685195923,
        2.152860403060913,
        1.1315034627914429,
        1.0508912801742554,
        0.8664348721504211,
        1.0443564653396606
      ]
    }
  ]
}