{
  "config": {
    "method": "replay",
    "n_pool": 4000,
    "n_obj": 2000,
    "n_val": 2000,
    "inner_epochs": 12,
    "batch": 250,
    "total_steps": 192,
    "inner_lr": 0.02,
    "meta_lr": 0.05,
    "meta_steps": 20
  },
  "history": [
    {
      "step": 0,
      "obj_ce": 1.8129668235778809,
      "val_ce": 1.791975975036621,
      "z": [
        0.0,
        0.0,
        0.0,
        0.0,
        0.0,
        0.0,
        0.0,
        0.0,
        0.0,
        0.0
      ],
      "class_weights": [
        1.0,
        1.0,
        1.0,
        1.0,
        1.0,
        1.0,
        1.0,
        1.0,
        1.0,
        1.0
      ]
    },
    {
      "step": 1,
      "obj_ce": 1.7906615734100342,
      "val_ce": 1.7791958451271057,
      "z": [
        0.04999999329447746,
        -0.04999999701976776,
        -0.04999999701976776,
        0.04999999329447746,
        -0.04999999701976776,
        0.05000000074505806,
        -0.05000000074505806,
        0.05000000074505806,
        -0.04999999329447746,
        0.04999999329447746
      ],
      "class_weights": [
        1.049958348274231,
        0.9500417113304138,
        0.9500417113304138,
        1.049958348274231,
        0.9500417113304138,
        1.049958348274231,
        0.9500415325164795,
        1.049958348274231,
        0.9500417113304138,
        1.049958348274231
      ]
    },
    {
      "step": 2,
      "obj_ce": 1.8283882141113281,
      "val_ce": 1.81458181142807,
      "z": [
        0.09772473573684692,
        -0.09922993183135986,
        -0.08633606135845184,
        0.08454208821058273,
        -0.09811563789844513,
        0.09317312389612198,
        -0.07824024558067322,
        0.015086645260453224,
        -0.036411676555871964,
        0.05303109064698219
      ],
      "class_weights": [
        1.1052517890930176,
        0.9076635837554932,
        0.9194427132606506,
        1.0907772779464722,
        0.9086755514144897,
        1.100232481956482,
        0.9269164800643921,
        1.0175879001617432,
        0.9665104150772095,
        1.0569416284561157
      ]
    },
    {
      "step": 3,
      "obj_ce": 1.820649266242981,
      "val_ce": 1.8160372972488403,
      "z": [
        0.14626580476760864,
        -0.08206048607826233,
        -0.12558981776237488,
        0.07353746145963669,
        -0.11851763725280762,
        0.13688863813877106,
        -0.09967925399541855,
        -0.014492169953882694,
        -0.028768960386514664,
        0.05186875909566879
      ],
      "class_weights": [
        1.1589454412460327,
        0.9223635196685791,
        0.8830749988555908,
        1.0776493549346924,
        0.8893423676490784,
        1.1481285095214844,
        0.9062549471855164,
        0.9868398308753967,
        0.972851037979126,
        1.0545493364334106
      ]
    },
    {
      "step": 4,
      "obj_ce": 1.8005419969558716,
      "val_ce": 1.7860132455825806,
      "z": [
        0.18710698187351227,
        -0.06592514365911484,
        -0.16013404726982117,
        0.06371286511421204,
        -0.13506153225898743,
        0.17414391040802002,
        -0.11742522567510605,
        -0.03754906728863716,
        -0.04369816929101944,
        0.07597057521343231
      ],
      "class_weights": [
        1.2042882442474365,
        0.9350612163543701,
        0.8509922623634338,
        1.0644887685775757,
        0.8725985288619995,
        1.1887778043746948,
        0.8881244659423828,
        0.961974561214447,
        0.956077516078949,
        1.0776172876358032
      ]
    },
    {
      "step": 5,
      "obj_ce": 1.8230403661727905,
      "val_ce": 1.8091371059417725,
      "z": [
        0.22298502922058105,
        -0.05946292355656624,
        -0.19886276125907898,
        0.03597081080079079,
        -0.15599700808525085,
        0.202245831489563,
        -0.10583726316690445,
        -0.020032469183206558,
        -0.0506809838116169,
        0.06865325570106506
      ],
      "class_weights": [
        1.2461313009262085,
        0.9395030736923218,
        0.8172550797462463,
        1.033581256866455,
        0.8530490398406982,
        1.2205537557601929,
        0.896929144859314,
        0.9772882461547852,
        0.9477901458740234,
        1.067919135093689
      ]
    },
    {
      "step": 6,
      "obj_ce": 1.798946499824524,
      "val_ce": 1.7823159098625183,
      "z": [
        0.24266110360622406,
        -0.053809087723493576,
        -0.23833809792995453,
        0.013669461943209171,
        -0.17083609104156494,
        0.2136559933423996,
        -0.09392809122800827,
        -0.00464861374348402,
        -0.038576796650886536,
        0.07098481059074402
      ],
      "class_weights": [
        1.2687320709228516,
        0.9432233572006226,
        0.7842863202095032,
        1.0090672969818115,
        0.8390548825263977,
        1.232460856437683,
        0.9061312675476074,
        0.990751326084137,
        0.9577009081840515,
        1.068591833114624
      ]
    },
    {
      "step": 7,
      "obj_ce": 1.8347752094268799,
      "val_ce": 1.8211155533790588,
      "z": [
        0.2601129710674286,
        -0.05932743102312088,
        -0.2413516789674759,
        -0.006280595902353525,
        -0.1948765218257904,
        0.23929505050182343,
        -0.09317448735237122,
        0.006275507155805826,
        -0.04103299230337143,
        0.0550273172557354
      ],
      "class_weights": [
        1.2911676168441772,
        0.9381049275398254,
        0.7819864749908447,
        0.9892120361328125,
        0.8191871643066406,
        1.2645660638809204,
        0.9068841338157654,
        1.0017107725143433,
        0.9554249048233032,
        1.0517561435699463
      ]
    },
    {
      "step": 8,
      "obj_ce": 1.8010579347610474,
      "val_ce": 1.7824885845184326,
      "z": [
        0.26363518834114075,
        -0.06423290818929672,
        -0.24286307394504547,
        -0.020656371489167213,
        -0.2204287201166153,
        0.2604537904262543,
        -0.09214115887880325,
        0.02132231369614601,
        -0.04684297740459442,
        0.035902079194784164
      ],
      "class_weights": [
        1.298098087310791,
        0.9352251887321472,
        0.7822365760803223,
        0.9768801927566528,
        0.7999838590621948,
        1.2939749956130981,
        0.9094855785369873,
        1.018761157989502,
        0.9516310095787048,
        1.03372323513031
      ]
    },
    {
      "step": 9,
      "obj_ce": 1.8443297147750854,
      "val_ce": 1.8234311938285828,
      "z": [
        0.27163153886795044,
        -0.07744666934013367,
        -0.24492782354354858,
        -0.034830402582883835,
        -0.2281154990196228,
        0.27781373262405396,
        -0.09259149432182312,
        0.02768070623278618,
        -0.0410928800702095,
        0.02779393270611763
      ],
      "class_weights": [
        1.3081867694854736,
        0.9227138161659241,
        0.7804244756698608,
        0.9628862738609314,
        0.7936561107635498,
        1.316299319267273,
        0.9088447690010071,
        1.0249985456466675,
        0.9568751454353333,
        1.02511465549469
      ]
    },
    {
      "step": 10,
      "obj_ce": 1.810809850692749,
      "val_ce": 1.7848068475723267,
      "z": [
        0.27964138984680176,
        -0.09484885632991791,
        -0.2409726232290268,
        -0.04427832365036011,
        -0.23894082009792328,
        0.2984287142753601,
        -0.09188813716173172,
        0.02963283285498619,
        -0.04788214713335037,
        0.01699560508131981
      ],
      "class_weights": [
        1.3196744918823242,
        0.9074605703353882,
        0.7840920090675354,
        0.9545316696166992,
        0.785686731338501,
        1.344702124595642,
        0.9101513624191284,
        1.0277546644210815,
        0.9510977268218994,
        1.0148485898971558
      ]
    },
    {
      "step": 11,
      "obj_ce": 1.7951980829238892,
      "val_ce": 1.7754848003387451,
      "z": [
        0.27027058601379395,
        -0.11317138373851776,
        -0.2396211177110672,
        -0.04881403222680092,
        -0.2411118447780609,
        0.3145920932292938,
        -0.09322694689035416,
        0.029312605038285255,
        -0.04871370270848274,
        0.018331969156861305
      ],
      "class_weights": [
        1.3090436458587646,
        0.8921284079551697,
        0.7861599922180176,
        0.951431155204773,
        0.7849889397621155,
        1.3683671951293945,
        0.910099983215332,
        1.0287442207336426,
        0.9515266418457031,
        1.0175096988677979
      ]
    },
    {
      "step": 12,
      "obj_ce": 1.8121145963668823,
      "val_ce": 1.8040308952331543,
      "z": [
        0.2693758010864258,
        -0.13250558078289032,
        -0.23475512862205505,
        -0.05248714238405228,
        -0.24528419971466064,
        0.33248957991600037,
        -0.09201974421739578,
        0.02243969403207302,
        -0.050573062151670456,
        0.013851018622517586
      ],
      "class_weights": [
        1.3090152740478516,
        0.8758100271224976,
        0.7906848788261414,
        0.9487711191177368,
        0.7824034094810486,
        1.3942950963974,
        0.9119954705238342,
        1.0225905179977417,
        0.9505888819694519,
        1.013845443725586
      ]
    },
    {
      "step": 13,
      "obj_ce": 1.8233577013015747,
      "val_ce": 1.8069186210632324,
      "z": [
        0.24526779353618622,
        -0.10874872654676437,
        -0.2586240768432617,
        -0.07680526375770569,
        -0.22126276791095734,
        0.356966108083725,
        -0.06789747625589371,
        -0.001893558888696134,
        -0.07262208312749863,
        -0.010295419953763485
      ],
      "class_weights": [
        1.28364098072052,
        0.9009405970573425,
        0.7755434513092041,
        0.9301842451095581,
        0.8050668239593506,
        1.4353358745574951,
        0.9385072588920593,
        1.0025423765182495,
        0.9340835809707642,
        0.9941545128822327
      ]
    },
    {
      "step": 14,
      "obj_ce": 1.8117263317108154,
      "val_ce": 1.788069725036621,
      "z": [
        0.22330482304096222,
        -0.08633890748023987,
        -0.280363529920578,
        -0.0981760248541832,
        -0.19986823201179504,
        0.3788444995880127,
        -0.046389345079660416,
        -0.02370276302099228,
        -0.09625887870788574,
        -0.03180450201034546
      ],
      "class_weights": [
        1.2606537342071533,
        0.9249521493911743,
        0.7618253231048584,
        0.9140679240226746,
        0.8256844282150269,
        1.4728070497512817,
        0.9626516103744507,
        0.9847404956817627,
        0.91582190990448,
        0.9767946004867554
      ]
    },
    {
      "step": 15,
      "obj_ce": 1.8269926309585571,
      "val_ce": 1.8215162754058838,
      "z": [
        0.2038709670305252,
        -0.06567590683698654,
        -0.299077570438385,
        -0.11637226492166519,
        -0.18009884655475616,
        0.3996080458164215,
        -0.026923030614852905,
        -0.04315879940986633,
        -0.1243477538228035,
        -0.050828978419303894
      ],
      "class_weights": [
        1.2403597831726074,
        0.9472944736480713,
        0.7501012682914734,
        0.9004669785499573,
        0.8448735475540161,
        1.5085344314575195,
        0.9847253561019897,
        0.9688666462898254,
        0.8933139443397522,
        0.9614637494087219
      ]
    },
    {
      "step": 16,
      "obj_ce": 1.8658701181411743,
      "val_ce": 1.8556578159332275,
      "z": [
        0.18612942099571228,
        -0.04715116694569588,
        -0.3162546157836914,
        -0.13245652616024017,
        -0.1621098816394806,
        0.4184596836566925,
        -0.009518904611468315,
        -0.06057174503803253,
        -0.14900389313697815,
        -0.0680660605430603
      ],
      "class_weights": [
        1.221580147743225,
        0.9674075245857239,
        0.739161491394043,
        0.8883044123649597,
        0.8623499274253845,
        1.5410676002502441,
        1.0045069456100464,
        0.9545111656188965,
        0.8737262487411499,
        0.9473843574523926
      ]
    },
    {
      "step": 17,
      "obj_ce": 1.8514654636383057,
      "val_ce": 1.8492525219917297,
      "z": [
        0.1721431463956833,
        -0.02811148576438427,
        -0.3277401924133301,
        -0.14162743091583252,
        -0.1439482420682907,
        0.4384114444255829,
        0.008025389164686203,
        -0.08919388800859451,
        -0.15230591595172882,
        -0.08159567415714264
      ],
      "class_weights": [
        1.2037502527236938,
        0.985296368598938,
        0.7301965355873108,
        0.8795641660690308,
        0.8775252103805542,
        1.5709965229034424,
        1.0215530395507812,
        0.9269132614135742,
        0.870221734046936,
        0.9339830875396729
      ]
    },
    {
      "step": 18,
      "obj_ce": 1.8203872442245483,
      "val_ce": 1.8316981792449951,
      "z": [
        0.15938420593738556,
        -0.009860189631581306,
        -0.3386741578578949,
        -0.15064863860607147,
        -0.12700743973255157,
        0.45560356974601746,
        0.02496405877172947,
        -0.11527309566736221,
        -0.1557193547487259,
        -0.09374072402715683
      ],
      "class_weights": [
        1.1874641180038452,
        1.0025789737701416,
        0.7216331362724304,
        0.8709132671356201,
        0.8917480111122131,
        1.5968601703643799,
        1.038107991218567,
        0.9022736549377441,
        0.8665082454681396,
        0.9219124913215637
      ]
    },
    {
      "step": 19,
      "obj_ce": 1.8018693923950195,
      "val_ce": 1.7889765501022339,
      "z": [
        0.14771315455436707,
        0.009810512885451317,
        -0.352896511554718,
        -0.1603274792432785,
        -0.11102417856454849,
        0.47031450271606445,
        0.041974205523729324,
        -0.13950969278812408,
        -0.170164555311203,
        -0.1020713523030281
      ],
      "class_weights": [
        1.1734838485717773,
        1.0223196744918823,
        0.7113200426101685,
        0.8623760938644409,
        0.9059596657752991,
        1.620246410369873,
        1.0557358264923096,
        0.8805171251296997,
        0.8539343476295471,
        0.9141070246696472
      ]
    },
    {
      "step": 20,
      "obj_ce": 1.83130943775177,
      "val_ce": 1.8218215703964233,
      "z": [
        0.13713747262954712,
        0.027842490002512932,
        -0.3658958077430725,
        -0.1691363900899887,
        -0.09660589694976807,
        0.48359641432762146,
        0.057464707642793655,
        -0.1615433394908905,
        -0.18286079168319702,
        -0.10964221507310867
      ],
      "class_weights": [
        1.1606800556182861,
        1.0405101776123047,
        0.7018559575080872,
        0.8544752597808838,
        0.9187536239624023,
        1.641261339187622,
        1.0717934370040894,
        0.8609880208969116,
        0.8428281545639038,
        0.9068542122840881
      ]
    }
  ]
}